Language model created by QuickLM on Tue Feb 12 23:13:09 EST 2019
Copyright (c) 1996-2010 Carnegie Mellon University and Alexander I. Rudnicky

The model is in standard ARPA format, designed by Doug Paul while he was at MITRE.

The code that was used to produce this language model is available in Open Source.
Please visit http://www.speech.cs.cmu.edu/tools/ for more information

The (fixed) discount mass is 0.5. The backoffs are computed using the ratio method.
This model based on a corpus of 384 sentences and 25 words

\data\
ngram 1=25
ngram 2=92
ngram 3=182

\1-grams:
-1.0792 </s> -0.3010
-1.0792 <s> -0.2632
-1.9823 ALPHA -0.2632
-1.8573 BISHOP -0.2632
-1.9823 BRAVO -0.2632
-1.9823 CHARLIE -0.2632
-1.9823 DELTA -0.2632
-1.9823 ECHO -0.2632
-1.9823 EIGHT -0.2632
-1.9823 FIVE -0.2632
-1.9823 FOUR -0.2632
-1.9823 FOXTROT -0.2632
-1.9823 GOLF -0.2632
-1.9823 HOTEL -0.2632
-1.8573 KING -0.2632
-1.8573 KNIGHT -0.2632
-1.9823 ONE -0.2632
-1.8573 PAWN -0.2632
-1.8573 QUEEN -0.2632
-1.8573 ROOK -0.2632
-1.9823 SEVEN -0.2632
-1.9823 SIX -0.2632
-1.9823 THREE -0.2632
-1.0792 TO -0.2632
-1.9823 TWO -0.2632

\2-grams:
-1.0792 <s> BISHOP 0.0000
-1.0792 <s> KING 0.0000
-1.0792 <s> KNIGHT 0.0000
-1.0792 <s> PAWN 0.0000
-1.0792 <s> QUEEN 0.0000
-1.0792 <s> ROOK 0.0000
-1.2041 ALPHA EIGHT 0.0000
-1.2041 ALPHA FIVE 0.0000
-1.2041 ALPHA FOUR 0.0000
-1.2041 ALPHA ONE 0.0000
-1.2041 ALPHA SEVEN 0.0000
-1.2041 ALPHA SIX 0.0000
-1.2041 ALPHA THREE 0.0000
-1.2041 ALPHA TWO 0.0000
-0.3010 BISHOP TO 0.0000
-1.2041 BRAVO EIGHT 0.0000
-1.2041 BRAVO FIVE 0.0000
-1.2041 BRAVO FOUR 0.0000
-1.2041 BRAVO ONE 0.0000
-1.2041 BRAVO SEVEN 0.0000
-1.2041 BRAVO SIX 0.0000
-1.2041 BRAVO THREE 0.0000
-1.2041 BRAVO TWO 0.0000
-1.2041 CHARLIE EIGHT 0.0000
-1.2041 CHARLIE FIVE 0.0000
-1.2041 CHARLIE FOUR 0.0000
-1.2041 CHARLIE ONE 0.0000
-1.2041 CHARLIE SEVEN 0.0000
-1.2041 CHARLIE SIX 0.0000
-1.2041 CHARLIE THREE 0.0000
-1.2041 CHARLIE TWO 0.0000
-1.2041 DELTA EIGHT 0.0000
-1.2041 DELTA FIVE 0.0000
-1.2041 DELTA FOUR 0.0000
-1.2041 DELTA ONE 0.0000
-1.2041 DELTA SEVEN 0.0000
-1.2041 DELTA SIX 0.0000
-1.2041 DELTA THREE 0.0000
-1.2041 DELTA TWO 0.0000
-1.2041 ECHO EIGHT 0.0000
-1.2041 ECHO FIVE 0.0000
-1.2041 ECHO FOUR 0.0000
-1.2041 ECHO ONE 0.0000
-1.2041 ECHO SEVEN 0.0000
-1.2041 ECHO SIX 0.0000
-1.2041 ECHO THREE 0.0000
-1.2041 ECHO TWO 0.0000
-0.3010 EIGHT </s> -0.3010
-0.3010 FIVE </s> -0.3010
-0.3010 FOUR </s> -0.3010
-1.2041 FOXTROT EIGHT 0.0000
-1.2041 FOXTROT FIVE 0.0000
-1.2041 FOXTROT FOUR 0.0000
-1.2041 FOXTROT ONE 0.0000
-1.2041 FOXTROT SEVEN 0.0000
-1.2041 FOXTROT SIX 0.0000
-1.2041 FOXTROT THREE 0.0000
-1.2041 FOXTROT TWO 0.0000
-1.2041 GOLF EIGHT 0.0000
-1.2041 GOLF FIVE 0.0000
-1.2041 GOLF FOUR 0.0000
-1.2041 GOLF ONE 0.0000
-1.2041 GOLF SEVEN 0.0000
-1.2041 GOLF SIX 0.0000
-1.2041 GOLF THREE 0.0000
-1.2041 GOLF TWO 0.0000
-1.2041 HOTEL EIGHT 0.0000
-1.2041 HOTEL FIVE 0.0000
-1.2041 HOTEL FOUR 0.0000
-1.2041 HOTEL ONE 0.0000
-1.2041 HOTEL SEVEN 0.0000
-1.2041 HOTEL SIX 0.0000
-1.2041 HOTEL THREE 0.0000
-1.2041 HOTEL TWO 0.0000
-0.3010 KING TO 0.0000
-0.3010 KNIGHT TO 0.0000
-0.3010 ONE </s> -0.3010
-0.3010 PAWN TO 0.0000
-0.3010 QUEEN TO 0.0000
-0.3010 ROOK TO 0.0000
-0.3010 SEVEN </s> -0.3010
-0.3010 SIX </s> -0.3010
-0.3010 THREE </s> -0.3010
-1.2041 TO ALPHA 0.0000
-1.2041 TO BRAVO 0.0000
-1.2041 TO CHARLIE 0.0000
-1.2041 TO DELTA 0.0000
-1.2041 TO ECHO 0.0000
-1.2041 TO FOXTROT 0.0000
-1.2041 TO GOLF 0.0000
-1.2041 TO HOTEL 0.0000
-0.3010 TWO </s> -0.3010

\3-grams:
-0.3010 <s> BISHOP TO
-0.3010 <s> KING TO
-0.3010 <s> KNIGHT TO
-0.3010 <s> PAWN TO
-0.3010 <s> QUEEN TO
-0.3010 <s> ROOK TO
-0.3010 ALPHA EIGHT </s>
-0.3010 ALPHA FIVE </s>
-0.3010 ALPHA FOUR </s>
-0.3010 ALPHA ONE </s>
-0.3010 ALPHA SEVEN </s>
-0.3010 ALPHA SIX </s>
-0.3010 ALPHA THREE </s>
-0.3010 ALPHA TWO </s>
-1.2041 BISHOP TO ALPHA
-1.2041 BISHOP TO BRAVO
-1.2041 BISHOP TO CHARLIE
-1.2041 BISHOP TO DELTA
-1.2041 BISHOP TO ECHO
-1.2041 BISHOP TO FOXTROT
-1.2041 BISHOP TO GOLF
-1.2041 BISHOP TO HOTEL
-0.3010 BRAVO EIGHT </s>
-0.3010 BRAVO FIVE </s>
-0.3010 BRAVO FOUR </s>
-0.3010 BRAVO ONE </s>
-0.3010 BRAVO SEVEN </s>
-0.3010 BRAVO SIX </s>
-0.3010 BRAVO THREE </s>
-0.3010 BRAVO TWO </s>
-0.3010 CHARLIE EIGHT </s>
-0.3010 CHARLIE FIVE </s>
-0.3010 CHARLIE FOUR </s>
-0.3010 CHARLIE ONE </s>
-0.3010 CHARLIE SEVEN </s>
-0.3010 CHARLIE SIX </s>
-0.3010 CHARLIE THREE </s>
-0.3010 CHARLIE TWO </s>
-0.3010 DELTA EIGHT </s>
-0.3010 DELTA FIVE </s>
-0.3010 DELTA FOUR </s>
-0.3010 DELTA ONE </s>
-0.3010 DELTA SEVEN </s>
-0.3010 DELTA SIX </s>
-0.3010 DELTA THREE </s>
-0.3010 DELTA TWO </s>
-0.3010 ECHO EIGHT </s>
-0.3010 ECHO FIVE </s>
-0.3010 ECHO FOUR </s>
-0.3010 ECHO ONE </s>
-0.3010 ECHO SEVEN </s>
-0.3010 ECHO SIX </s>
-0.3010 ECHO THREE </s>
-0.3010 ECHO TWO </s>
-0.3010 FOXTROT EIGHT </s>
-0.3010 FOXTROT FIVE </s>
-0.3010 FOXTROT FOUR </s>
-0.3010 FOXTROT ONE </s>
-0.3010 FOXTROT SEVEN </s>
-0.3010 FOXTROT SIX </s>
-0.3010 FOXTROT THREE </s>
-0.3010 FOXTROT TWO </s>
-0.3010 GOLF EIGHT </s>
-0.3010 GOLF FIVE </s>
-0.3010 GOLF FOUR </s>
-0.3010 GOLF ONE </s>
-0.3010 GOLF SEVEN </s>
-0.3010 GOLF SIX </s>
-0.3010 GOLF THREE </s>
-0.3010 GOLF TWO </s>
-0.3010 HOTEL EIGHT </s>
-0.3010 HOTEL FIVE </s>
-0.3010 HOTEL FOUR </s>
-0.3010 HOTEL ONE </s>
-0.3010 HOTEL SEVEN </s>
-0.3010 HOTEL SIX </s>
-0.3010 HOTEL THREE </s>
-0.3010 HOTEL TWO </s>
-1.2041 KING TO ALPHA
-1.2041 KING TO BRAVO
-1.2041 KING TO CHARLIE
-1.2041 KING TO DELTA
-1.2041 KING TO ECHO
-1.2041 KING TO FOXTROT
-1.2041 KING TO GOLF
-1.2041 KING TO HOTEL
-1.2041 KNIGHT TO ALPHA
-1.2041 KNIGHT TO BRAVO
-1.2041 KNIGHT TO CHARLIE
-1.2041 KNIGHT TO DELTA
-1.2041 KNIGHT TO ECHO
-1.2041 KNIGHT TO FOXTROT
-1.2041 KNIGHT TO GOLF
-1.2041 KNIGHT TO HOTEL
-1.2041 PAWN TO ALPHA
-1.2041 PAWN TO BRAVO
-1.2041 PAWN TO CHARLIE
-1.2041 PAWN TO DELTA
-1.2041 PAWN TO ECHO
-1.2041 PAWN TO FOXTROT
-1.2041 PAWN TO GOLF
-1.2041 PAWN TO HOTEL
-1.2041 QUEEN TO ALPHA
-1.2041 QUEEN TO BRAVO
-1.2041 QUEEN TO CHARLIE
-1.2041 QUEEN TO DELTA
-1.2041 QUEEN TO ECHO
-1.2041 QUEEN TO FOXTROT
-1.2041 QUEEN TO GOLF
-1.2041 QUEEN TO HOTEL
-1.2041 ROOK TO ALPHA
-1.2041 ROOK TO BRAVO
-1.2041 ROOK TO CHARLIE
-1.2041 ROOK TO DELTA
-1.2041 ROOK TO ECHO
-1.2041 ROOK TO FOXTROT
-1.2041 ROOK TO GOLF
-1.2041 ROOK TO HOTEL
-1.2041 TO ALPHA EIGHT
-1.2041 TO ALPHA FIVE
-1.2041 TO ALPHA FOUR
-1.2041 TO ALPHA ONE
-1.2041 TO ALPHA SEVEN
-1.2041 TO ALPHA SIX
-1.2041 TO ALPHA THREE
-1.2041 TO ALPHA TWO
-1.2041 TO BRAVO EIGHT
-1.2041 TO BRAVO FIVE
-1.2041 TO BRAVO FOUR
-1.2041 TO BRAVO ONE
-1.2041 TO BRAVO SEVEN
-1.2041 TO BRAVO SIX
-1.2041 TO BRAVO THREE
-1.2041 TO BRAVO TWO
-1.2041 TO CHARLIE EIGHT
-1.2041 TO CHARLIE FIVE
-1.2041 TO CHARLIE FOUR
-1.2041 TO CHARLIE ONE
-1.2041 TO CHARLIE SEVEN
-1.2041 TO CHARLIE SIX
-1.2041 TO CHARLIE THREE
-1.2041 TO CHARLIE TWO
-1.2041 TO DELTA EIGHT
-1.2041 TO DELTA FIVE
-1.2041 TO DELTA FOUR
-1.2041 TO DELTA ONE
-1.2041 TO DELTA SEVEN
-1.2041 TO DELTA SIX
-1.2041 TO DELTA THREE
-1.2041 TO DELTA TWO
-1.2041 TO ECHO EIGHT
-1.2041 TO ECHO FIVE
-1.2041 TO ECHO FOUR
-1.2041 TO ECHO ONE
-1.2041 TO ECHO SEVEN
-1.2041 TO ECHO SIX
-1.2041 TO ECHO THREE
-1.2041 TO ECHO TWO
-1.2041 TO FOXTROT EIGHT
-1.2041 TO FOXTROT FIVE
-1.2041 TO FOXTROT FOUR
-1.2041 TO FOXTROT ONE
-1.2041 TO FOXTROT SEVEN
-1.2041 TO FOXTROT SIX
-1.2041 TO FOXTROT THREE
-1.2041 TO FOXTROT TWO
-1.2041 TO GOLF EIGHT
-1.2041 TO GOLF FIVE
-1.2041 TO GOLF FOUR
-1.2041 TO GOLF ONE
-1.2041 TO GOLF SEVEN
-1.2041 TO GOLF SIX
-1.2041 TO GOLF THREE
-1.2041 TO GOLF TWO
-1.2041 TO HOTEL EIGHT
-1.2041 TO HOTEL FIVE
-1.2041 TO HOTEL FOUR
-1.2041 TO HOTEL ONE
-1.2041 TO HOTEL SEVEN
-1.2041 TO HOTEL SIX
-1.2041 TO HOTEL THREE
-1.2041 TO HOTEL TWO

\end\
