Language model created by QuickLM on Wed Mar 13 22:45:12 EDT 2019
Copyright (c) 1996-2010 Carnegie Mellon University and Alexander I. Rudnicky

The model is in standard ARPA format, designed by Doug Paul while he was at MITRE.

The code that was used to produce this language model is available in Open Source.
Please visit http://www.speech.cs.cmu.edu/tools/ for more information

The (fixed) discount mass is 0.5. The backoffs are computed using the ratio method.
This model based on a corpus of 4032 sentences and 19 words

\data\
ngram 1=19
ngram 2=96
ngram 3=320

\1-grams:
-1.1461 </s> -0.3010
-1.1461 <s> -0.2341
-1.7482 ALPHA -0.2341
-1.7482 BRAVO -0.2341
-1.7482 CHARLIE -0.2341
-1.7482 DELTA -0.2341
-1.7482 ECHO -0.2341
-1.7482 EIGHT -0.2341
-1.7482 FIVE -0.2341
-1.7482 FOUR -0.2341
-1.7482 FOXTROT -0.2341
-1.7482 GOLF -0.2341
-1.7482 HOTEL -0.2341
-1.7482 ONE -0.2341
-1.7482 SEVEN -0.2341
-1.7482 SIX -0.2341
-1.7482 THREE -0.2341
-1.1461 TO -0.2341
-1.7482 TWO -0.2341

\2-grams:
-1.2041 <s> ALPHA 0.0000
-1.2041 <s> BRAVO 0.0000
-1.2041 <s> CHARLIE 0.0000
-1.2041 <s> DELTA 0.0000
-1.2041 <s> ECHO 0.0000
-1.2041 <s> FOXTROT 0.0000
-1.2041 <s> GOLF 0.0000
-1.2041 <s> HOTEL 0.0000
-1.2041 ALPHA EIGHT 0.0000
-1.2041 ALPHA FIVE 0.0000
-1.2041 ALPHA FOUR 0.0000
-1.2041 ALPHA ONE 0.0000
-1.2041 ALPHA SEVEN 0.0000
-1.2041 ALPHA SIX 0.0000
-1.2041 ALPHA THREE 0.0000
-1.2041 ALPHA TWO 0.0000
-1.2041 BRAVO EIGHT 0.0000
-1.2041 BRAVO FIVE 0.0000
-1.2041 BRAVO FOUR 0.0000
-1.2041 BRAVO ONE 0.0000
-1.2041 BRAVO SEVEN 0.0000
-1.2041 BRAVO SIX 0.0000
-1.2041 BRAVO THREE 0.0000
-1.2041 BRAVO TWO 0.0000
-1.2041 CHARLIE EIGHT 0.0000
-1.2041 CHARLIE FIVE 0.0000
-1.2041 CHARLIE FOUR 0.0000
-1.2041 CHARLIE ONE 0.0000
-1.2041 CHARLIE SEVEN 0.0000
-1.2041 CHARLIE SIX 0.0000
-1.2041 CHARLIE THREE 0.0000
-1.2041 CHARLIE TWO 0.0000
-1.2041 DELTA EIGHT 0.0000
-1.2041 DELTA FIVE 0.0000
-1.2041 DELTA FOUR 0.0000
-1.2041 DELTA ONE 0.0000
-1.2041 DELTA SEVEN 0.0000
-1.2041 DELTA SIX 0.0000
-1.2041 DELTA THREE 0.0000
-1.2041 DELTA TWO 0.0000
-1.2041 ECHO EIGHT 0.0000
-1.2041 ECHO FIVE 0.0000
-1.2041 ECHO FOUR 0.0000
-1.2041 ECHO ONE 0.0000
-1.2041 ECHO SEVEN 0.0000
-1.2041 ECHO SIX 0.0000
-1.2041 ECHO THREE 0.0000
-1.2041 ECHO TWO 0.0000
-0.6021 EIGHT </s> -0.3010
-0.6021 EIGHT TO 0.0000
-0.6021 FIVE </s> -0.3010
-0.6021 FIVE TO 0.0000
-0.6021 FOUR </s> -0.3010
-0.6021 FOUR TO 0.0000
-1.2041 FOXTROT EIGHT 0.0000
-1.2041 FOXTROT FIVE 0.0000
-1.2041 FOXTROT FOUR 0.0000
-1.2041 FOXTROT ONE 0.0000
-1.2041 FOXTROT SEVEN 0.0000
-1.2041 FOXTROT SIX 0.0000
-1.2041 FOXTROT THREE 0.0000
-1.2041 FOXTROT TWO 0.0000
-1.2041 GOLF EIGHT 0.0000
-1.2041 GOLF FIVE 0.0000
-1.2041 GOLF FOUR 0.0000
-1.2041 GOLF ONE 0.0000
-1.2041 GOLF SEVEN 0.0000
-1.2041 GOLF SIX 0.0000
-1.2041 GOLF THREE 0.0000
-1.2041 GOLF TWO 0.0000
-1.2041 HOTEL EIGHT 0.0000
-1.2041 HOTEL FIVE 0.0000
-1.2041 HOTEL FOUR 0.0000
-1.2041 HOTEL ONE 0.0000
-1.2041 HOTEL SEVEN 0.0000
-1.2041 HOTEL SIX 0.0000
-1.2041 HOTEL THREE 0.0000
-1.2041 HOTEL TWO 0.0000
-0.6021 ONE </s> -0.3010
-0.6021 ONE TO 0.0000
-0.6021 SEVEN </s> -0.3010
-0.6021 SEVEN TO 0.0000
-0.6021 SIX </s> -0.3010
-0.6021 SIX TO 0.0000
-0.6021 THREE </s> -0.3010
-0.6021 THREE TO 0.0000
-1.2041 TO ALPHA 0.0000
-1.2041 TO BRAVO 0.0000
-1.2041 TO CHARLIE 0.0000
-1.2041 TO DELTA 0.0000
-1.2041 TO ECHO 0.0000
-1.2041 TO FOXTROT 0.0000
-1.2041 TO GOLF 0.0000
-1.2041 TO HOTEL 0.0000
-0.6021 TWO </s> -0.3010
-0.6021 TWO TO 0.0000

\3-grams:
-1.2041 <s> ALPHA EIGHT
-1.2041 <s> ALPHA FIVE
-1.2041 <s> ALPHA FOUR
-1.2041 <s> ALPHA ONE
-1.2041 <s> ALPHA SEVEN
-1.2041 <s> ALPHA SIX
-1.2041 <s> ALPHA THREE
-1.2041 <s> ALPHA TWO
-1.2041 <s> BRAVO EIGHT
-1.2041 <s> BRAVO FIVE
-1.2041 <s> BRAVO FOUR
-1.2041 <s> BRAVO ONE
-1.2041 <s> BRAVO SEVEN
-1.2041 <s> BRAVO SIX
-1.2041 <s> BRAVO THREE
-1.2041 <s> BRAVO TWO
-1.2041 <s> CHARLIE EIGHT
-1.2041 <s> CHARLIE FIVE
-1.2041 <s> CHARLIE FOUR
-1.2041 <s> CHARLIE ONE
-1.2041 <s> CHARLIE SEVEN
-1.2041 <s> CHARLIE SIX
-1.2041 <s> CHARLIE THREE
-1.2041 <s> CHARLIE TWO
-1.2041 <s> DELTA EIGHT
-1.2041 <s> DELTA FIVE
-1.2041 <s> DELTA FOUR
-1.2041 <s> DELTA ONE
-1.2041 <s> DELTA SEVEN
-1.2041 <s> DELTA SIX
-1.2041 <s> DELTA THREE
-1.2041 <s> DELTA TWO
-1.2041 <s> ECHO EIGHT
-1.2041 <s> ECHO FIVE
-1.2041 <s> ECHO FOUR
-1.2041 <s> ECHO ONE
-1.2041 <s> ECHO SEVEN
-1.2041 <s> ECHO SIX
-1.2041 <s> ECHO THREE
-1.2041 <s> ECHO TWO
-1.2041 <s> FOXTROT EIGHT
-1.2041 <s> FOXTROT FIVE
-1.2041 <s> FOXTROT FOUR
-1.2041 <s> FOXTROT ONE
-1.2041 <s> FOXTROT SEVEN
-1.2041 <s> FOXTROT SIX
-1.2041 <s> FOXTROT THREE
-1.2041 <s> FOXTROT TWO
-1.2041 <s> GOLF EIGHT
-1.2041 <s> GOLF FIVE
-1.2041 <s> GOLF FOUR
-1.2041 <s> GOLF ONE
-1.2041 <s> GOLF SEVEN
-1.2041 <s> GOLF SIX
-1.2041 <s> GOLF THREE
-1.2041 <s> GOLF TWO
-1.2041 <s> HOTEL EIGHT
-1.2041 <s> HOTEL FIVE
-1.2041 <s> HOTEL FOUR
-1.2041 <s> HOTEL ONE
-1.2041 <s> HOTEL SEVEN
-1.2041 <s> HOTEL SIX
-1.2041 <s> HOTEL THREE
-1.2041 <s> HOTEL TWO
-0.6021 ALPHA EIGHT </s>
-0.6021 ALPHA EIGHT TO
-0.6021 ALPHA FIVE </s>
-0.6021 ALPHA FIVE TO
-0.6021 ALPHA FOUR </s>
-0.6021 ALPHA FOUR TO
-0.6021 ALPHA ONE </s>
-0.6021 ALPHA ONE TO
-0.6021 ALPHA SEVEN </s>
-0.6021 ALPHA SEVEN TO
-0.6021 ALPHA SIX </s>
-0.6021 ALPHA SIX TO
-0.6021 ALPHA THREE </s>
-0.6021 ALPHA THREE TO
-0.6021 ALPHA TWO </s>
-0.6021 ALPHA TWO TO
-0.6021 BRAVO EIGHT </s>
-0.6021 BRAVO EIGHT TO
-0.6021 BRAVO FIVE </s>
-0.6021 BRAVO FIVE TO
-0.6021 BRAVO FOUR </s>
-0.6021 BRAVO FOUR TO
-0.6021 BRAVO ONE </s>
-0.6021 BRAVO ONE TO
-0.6021 BRAVO SEVEN </s>
-0.6021 BRAVO SEVEN TO
-0.6021 BRAVO SIX </s>
-0.6021 BRAVO SIX TO
-0.6021 BRAVO THREE </s>
-0.6021 BRAVO THREE TO
-0.6021 BRAVO TWO </s>
-0.6021 BRAVO TWO TO
-0.6021 CHARLIE EIGHT </s>
-0.6021 CHARLIE EIGHT TO
-0.6021 CHARLIE FIVE </s>
-0.6021 CHARLIE FIVE TO
-0.6021 CHARLIE FOUR </s>
-0.6021 CHARLIE FOUR TO
-0.6021 CHARLIE ONE </s>
-0.6021 CHARLIE ONE TO
-0.6021 CHARLIE SEVEN </s>
-0.6021 CHARLIE SEVEN TO
-0.6021 CHARLIE SIX </s>
-0.6021 CHARLIE SIX TO
-0.6021 CHARLIE THREE </s>
-0.6021 CHARLIE THREE TO
-0.6021 CHARLIE TWO </s>
-0.6021 CHARLIE TWO TO
-0.6021 DELTA EIGHT </s>
-0.6021 DELTA EIGHT TO
-0.6021 DELTA FIVE </s>
-0.6021 DELTA FIVE TO
-0.6021 DELTA FOUR </s>
-0.6021 DELTA FOUR TO
-0.6021 DELTA ONE </s>
-0.6021 DELTA ONE TO
-0.6021 DELTA SEVEN </s>
-0.6021 DELTA SEVEN TO
-0.6021 DELTA SIX </s>
-0.6021 DELTA SIX TO
-0.6021 DELTA THREE </s>
-0.6021 DELTA THREE TO
-0.6021 DELTA TWO </s>
-0.6021 DELTA TWO TO
-0.6021 ECHO EIGHT </s>
-0.6021 ECHO EIGHT TO
-0.6021 ECHO FIVE </s>
-0.6021 ECHO FIVE TO
-0.6021 ECHO FOUR </s>
-0.6021 ECHO FOUR TO
-0.6021 ECHO ONE </s>
-0.6021 ECHO ONE TO
-0.6021 ECHO SEVEN </s>
-0.6021 ECHO SEVEN TO
-0.6021 ECHO SIX </s>
-0.6021 ECHO SIX TO
-0.6021 ECHO THREE </s>
-0.6021 ECHO THREE TO
-0.6021 ECHO TWO </s>
-0.6021 ECHO TWO TO
-1.2041 EIGHT TO ALPHA
-1.2041 EIGHT TO BRAVO
-1.2041 EIGHT TO CHARLIE
-1.2041 EIGHT TO DELTA
-1.2041 EIGHT TO ECHO
-1.2041 EIGHT TO FOXTROT
-1.2041 EIGHT TO GOLF
-1.2041 EIGHT TO HOTEL
-1.2041 FIVE TO ALPHA
-1.2041 FIVE TO BRAVO
-1.2041 FIVE TO CHARLIE
-1.2041 FIVE TO DELTA
-1.2041 FIVE TO ECHO
-1.2041 FIVE TO FOXTROT
-1.2041 FIVE TO GOLF
-1.2041 FIVE TO HOTEL
-1.2041 FOUR TO ALPHA
-1.2041 FOUR TO BRAVO
-1.2041 FOUR TO CHARLIE
-1.2041 FOUR TO DELTA
-1.2041 FOUR TO ECHO
-1.2041 FOUR TO FOXTROT
-1.2041 FOUR TO GOLF
-1.2041 FOUR TO HOTEL
-0.6021 FOXTROT EIGHT </s>
-0.6021 FOXTROT EIGHT TO
-0.6021 FOXTROT FIVE </s>
-0.6021 FOXTROT FIVE TO
-0.6021 FOXTROT FOUR </s>
-0.6021 FOXTROT FOUR TO
-0.6021 FOXTROT ONE </s>
-0.6021 FOXTROT ONE TO
-0.6021 FOXTROT SEVEN </s>
-0.6021 FOXTROT SEVEN TO
-0.6021 FOXTROT SIX </s>
-0.6021 FOXTROT SIX TO
-0.6021 FOXTROT THREE </s>
-0.6021 FOXTROT THREE TO
-0.6021 FOXTROT TWO </s>
-0.6021 FOXTROT TWO TO
-0.6021 GOLF EIGHT </s>
-0.6021 GOLF EIGHT TO
-0.6021 GOLF FIVE </s>
-0.6021 GOLF FIVE TO
-0.6021 GOLF FOUR </s>
-0.6021 GOLF FOUR TO
-0.6021 GOLF ONE </s>
-0.6021 GOLF ONE TO
-0.6021 GOLF SEVEN </s>
-0.6021 GOLF SEVEN TO
-0.6021 GOLF SIX </s>
-0.6021 GOLF SIX TO
-0.6021 GOLF THREE </s>
-0.6021 GOLF THREE TO
-0.6021 GOLF TWO </s>
-0.6021 GOLF TWO TO
-0.6021 HOTEL EIGHT </s>
-0.6021 HOTEL EIGHT TO
-0.6021 HOTEL FIVE </s>
-0.6021 HOTEL FIVE TO
-0.6021 HOTEL FOUR </s>
-0.6021 HOTEL FOUR TO
-0.6021 HOTEL ONE </s>
-0.6021 HOTEL ONE TO
-0.6021 HOTEL SEVEN </s>
-0.6021 HOTEL SEVEN TO
-0.6021 HOTEL SIX </s>
-0.6021 HOTEL SIX TO
-0.6021 HOTEL THREE </s>
-0.6021 HOTEL THREE TO
-0.6021 HOTEL TWO </s>
-0.6021 HOTEL TWO TO
-1.2041 ONE TO ALPHA
-1.2041 ONE TO BRAVO
-1.2041 ONE TO CHARLIE
-1.2041 ONE TO DELTA
-1.2041 ONE TO ECHO
-1.2041 ONE TO FOXTROT
-1.2041 ONE TO GOLF
-1.2041 ONE TO HOTEL
-1.2041 SEVEN TO ALPHA
-1.2041 SEVEN TO BRAVO
-1.2041 SEVEN TO CHARLIE
-1.2041 SEVEN TO DELTA
-1.2041 SEVEN TO ECHO
-1.2041 SEVEN TO FOXTROT
-1.2041 SEVEN TO GOLF
-1.2041 SEVEN TO HOTEL
-1.2041 SIX TO ALPHA
-1.2041 SIX TO BRAVO
-1.2041 SIX TO CHARLIE
-1.2041 SIX TO DELTA
-1.2041 SIX TO ECHO
-1.2041 SIX TO FOXTROT
-1.2041 SIX TO GOLF
-1.2041 SIX TO HOTEL
-1.2041 THREE TO ALPHA
-1.2041 THREE TO BRAVO
-1.2041 THREE TO CHARLIE
-1.2041 THREE TO DELTA
-1.2041 THREE TO ECHO
-1.2041 THREE TO FOXTROT
-1.2041 THREE TO GOLF
-1.2041 THREE TO HOTEL
-1.2041 TO ALPHA EIGHT
-1.2041 TO ALPHA FIVE
-1.2041 TO ALPHA FOUR
-1.2041 TO ALPHA ONE
-1.2041 TO ALPHA SEVEN
-1.2041 TO ALPHA SIX
-1.2041 TO ALPHA THREE
-1.2041 TO ALPHA TWO
-1.2041 TO BRAVO EIGHT
-1.2041 TO BRAVO FIVE
-1.2041 TO BRAVO FOUR
-1.2041 TO BRAVO ONE
-1.2041 TO BRAVO SEVEN
-1.2041 TO BRAVO SIX
-1.2041 TO BRAVO THREE
-1.2041 TO BRAVO TWO
-1.2041 TO CHARLIE EIGHT
-1.2041 TO CHARLIE FIVE
-1.2041 TO CHARLIE FOUR
-1.2041 TO CHARLIE ONE
-1.2041 TO CHARLIE SEVEN
-1.2041 TO CHARLIE SIX
-1.2041 TO CHARLIE THREE
-1.2041 TO CHARLIE TWO
-1.2041 TO DELTA EIGHT
-1.2041 TO DELTA FIVE
-1.2041 TO DELTA FOUR
-1.2041 TO DELTA ONE
-1.2041 TO DELTA SEVEN
-1.2041 TO DELTA SIX
-1.2041 TO DELTA THREE
-1.2041 TO DELTA TWO
-1.2041 TO ECHO EIGHT
-1.2041 TO ECHO FIVE
-1.2041 TO ECHO FOUR
-1.2041 TO ECHO ONE
-1.2041 TO ECHO SEVEN
-1.2041 TO ECHO SIX
-1.2041 TO ECHO THREE
-1.2041 TO ECHO TWO
-1.2041 TO FOXTROT EIGHT
-1.2041 TO FOXTROT FIVE
-1.2041 TO FOXTROT FOUR
-1.2041 TO FOXTROT ONE
-1.2041 TO FOXTROT SEVEN
-1.2041 TO FOXTROT SIX
-1.2041 TO FOXTROT THREE
-1.2041 TO FOXTROT TWO
-1.2041 TO GOLF EIGHT
-1.2041 TO GOLF FIVE
-1.2041 TO GOLF FOUR
-1.2041 TO GOLF ONE
-1.2041 TO GOLF SEVEN
-1.2041 TO GOLF SIX
-1.2041 TO GOLF THREE
-1.2041 TO GOLF TWO
-1.2041 TO HOTEL EIGHT
-1.2041 TO HOTEL FIVE
-1.2041 TO HOTEL FOUR
-1.2041 TO HOTEL ONE
-1.2041 TO HOTEL SEVEN
-1.2041 TO HOTEL SIX
-1.2041 TO HOTEL THREE
-1.2041 TO HOTEL TWO
-1.2041 TWO TO ALPHA
-1.2041 TWO TO BRAVO
-1.2041 TWO TO CHARLIE
-1.2041 TWO TO DELTA
-1.2041 TWO TO ECHO
-1.2041 TWO TO FOXTROT
-1.2041 TWO TO GOLF
-1.2041 TWO TO HOTEL

\end\
